<?xml version="1.0"?>
<opencv_storage>
<cascade>
  <stageType>BOOST</stageType>
  <featureType>HAAR</featureType>
  <height>24</height>
  <width>24</width>
  <stageParams>
    <boostType>GAB</boostType>
    <minHitRate>9.9500000476837158e-01</minHitRate>
    <maxFalseAlarm>5.0000000000000000e-01</maxFalseAlarm>
    <weightTrimRate>9.4999999999999996e-01</weightTrimRate>
    <maxDepth>1</maxDepth>
    <maxWeakCount>100</maxWeakCount></stageParams>
  <featureParams>
    <maxCatCount>0</maxCatCount>
    <featSize>1</featSize>
    <mode>BASIC</mode></featureParams>
  <stageNum>16</stageNum>
  <stages>
    <!-- stage 0 -->
    <_>
      <maxWeakCount>2</maxWeakCount>
      <stageThreshold>-1.6069719195365906e-01</stageThreshold>
      <weakClassifiers>
        <_>
          <internalNodes>
            0 -1 7 8.6856298148632050e-03</internalNodes>
          <leafValues>
            -7.7554178237915039e-01 8.7939107418060303e-01</leafValues></_>
        <_>
          <internalNodes>
            0 -1 14 1.1771458387374878e-01</internalNodes>
          <leafValues>
            -9.8258817195892334e-01 6.1484462022781372e-01</leafValues></_></weakClassifiers></_>
    <!-- stage 1 -->
    <_>
      <maxWeakCount>4</maxWeakCount>
      <stageThreshold>-8.2743763923645020e-01</stageThreshold>
      <weakClassifiers>
        <_>
          <internalNodes>
            0 -1 11 6.2127940356731415e-02</internalNodes>
          <leafValues>
            -6.7136865854263306e-01 8.1758958101272583e-01</leafValues></_>
        <_>
          <internalNodes>
            0 -1 5 1.6971562057733536e-02</internalNodes>
          <leafValues>
            -5.1113909482955933e-01 8.0336803197860718e-01</leafValues></_>
        <_>
          <internalNodes>
            0 -1 2 1.9648887217044830e-02</internalNodes>
          <leafValues>
            -5.4533296823501587e-01 7.0170062780380249e-01</leafValues></_>
        <_>
          <internalNodes>
            0 -1 66 2.7392385527491570e-02</internalNodes>
          <leafValues>
            -3.4663054347038269e-01 9.2543077468872070e-01</leafValues></_></weakClassifiers></_>
    <!-- stage 2 -->
    <_>
      <maxWeakCount>5</maxWeakCount>
      <stageThreshold>-9.8568022251129150e-01</stageThreshold>
      <weakClassifiers>
        <_>
          <internalNodes>
            0 -1 45 7.1971505880355835e-02</internalNodes>
          <leafValues>
            -4.9144884943962097e-01 8.6970007419586182e-01</leafValues></_>
        <_>
          <internalNodes>
            0 -1 30 9.3586686998605728e-03</internalNodes>
          <leafValues>
            -5.5046099424362183e-01 7.3848009109497070e-01</leafValues></_>
        <_>
          <internalNodes>
            0 -1 73 2.4033701047301292e-03</internalNodes>
          <leafValues>
            -3.6088067293167114e-01 7.4742907285690308e-01</leafValues></_>
        <_>
          <internalNodes>
            0 -1 60 1.7187902703881264e-02</internalNodes>
          <leafValues>
            -3.4840109944343567e-01 8.7663412094116211e-01</leafValues></_>
        <_>
          <internalNodes>
            0 -1 67 3.3140037208795547e-02</internalNodes>
          <leafValues>
            -3.4279832243919373e-01 8.3180332183837891e-01</leafValues></_></weakClassifiers></_>
    <!-- stage 3 -->
    <_>
      <maxWeakCount>6</maxWeakCount>
      <stageThreshold>-4.7467055916786194e-01</stageThreshold>
      <weakClassifiers>
        <_>
          <internalNodes>
            0 -1 36 -1.8042013049125671e-02</internalNodes>
          <leafValues>
            6.3257098197937012e-01 -7.5061851739883423e-01</leafValues></_>
        <_>
          <internalNodes>
            0 -1 8 3.5611186176538467e-03</internalNodes>
          <leafValues>
            -6.3366585969924927e-01 5.2244037389755249e-01</leafValues></_>
        <_>
          <internalNodes>
            0 -1 61 -2.0250648958608508e-04</internalNodes>
          <leafValues>
            -9.4227617979049683e-01 3.0761793255805969e-01</leafValues></_>
        <_>
          <internalNodes>
            0 -1 43 1.6063760966062546e-02</internalNodes>
          <leafValues>
            -4.3823853135108948e-01 6.7888313531875610e-01</leafValues></_>
        <_>
          <internalNodes>
            0 -1 55 -5.3010396659374237e-03</internalNodes>
          <leafValues>
            3.0564716458320618e-01 -8.8856750726699829e-01</leafValues></_>
        <_>
          <internalNodes>
            0 -1 32 2.5369826704263687e-02</internalNodes>
          <leafValues>
            -3.7681117653846741e-01 7.3458731174468994e-01</leafValues></_></weakClassifiers></_>
    <!-- stage 4 -->
    <_>
      <maxWeakCount>6</maxWeakCount>
      <stageThreshold>-6.9235056638717651e-01</stageThreshold>
      <weakClassifiers>
        <_>
          <internalNodes>
            0 -1 35 9.5258485525846481e-03</internalNodes>
          <leafValues>
            -5.5455660820007324e-01 6.6338306665420532e-01</leafValues></_>
        <_>
          <internalNodes>
            0 -1 24 8.0838333815336227e-03</internalNodes>
          <leafValues>
            -8.3685624599456787e-01 3.9061313867568970e-01</leafValues></_>
        <_>
          <internalNodes>
            0 -1 22 -9.8937861621379852e-03</internalNodes>
          <leafValues>
            5.9458613395690918e-01 -4.6746739745140076e-01</leafValues></_>
        <_>
          <internalNodes>
            0 -1 77 5.6394962593913078e-03</internalNodes>
          <leafValues>
            -2.9517742991447449e-01 7.2650671005249023e-01</leafValues></_>
        <_>
          <internalNodes>
            0 -1 59 4.1284218430519104e-02</internalNodes>
          <leafValues>
            -4.0885207056999207e-01 7.7598208189010620e-01</leafValues></_>
        <_>
          <internalNodes>
            0 -1 38 1.8442174419760704e-02</internalNodes>
          <leafValues>
            -2.5031521916389465e-01 8.4887504577636719e-01</leafValues></_></weakClassifiers></_>
    <!-- stage 5 -->
    <_>
      <maxWeakCount>6</maxWeakCount>
      <stageThreshold>-1.1887079477310181e+00</stageThreshold>
      <weakClassifiers>
        <_>
          <internalNodes>
            0 -1 27 8.6980551481246948e-02</internalNodes>
          <leafValues>
            -5.8054226636886597e-01 7.0332187414169312e-01</leafValues></_>
        <_>
          <internalNodes>
            0 -1 10 -5.0079531967639923e-02</internalNodes>
          <leafValues>
            6.0139715671539307e-01 -4.0627354383468628e-01</leafValues></_>
        <_>
          <internalNodes>
            0 -1 5 1.7479069530963898e-02</internalNodes>
          <leafValues>
            -5.2376264333724976e-01 4.7125011682510376e-01</leafValues></_>
        <_>
          <internalNodes>
            0 -1 17 -8.7545648217201233e-02</internalNodes>
          <leafValues>
            -9.7113138437271118e-01 2.2753842175006866e-01</leafValues></_>
        <_>
          <internalNodes>
            0 -1 9 7.9573960974812508e-03</internalNodes>
          <leafValues>
            2.3787599802017212e-01 -8.3361870050430298e-01</leafValues></_>
        <_>
          <internalNodes>
            0 -1 21 4.7330424189567566e-02</internalNodes>
          <leafValues>
            -3.5591343045234680e-01 7.9112321138381958e-01</leafValues></_></weakClassifiers></_>
    <!-- stage 6 -->
    <_>
      <maxWeakCount>6</maxWeakCount>
      <stageThreshold>-1.0234194993972778e+00</stageThreshold>
      <weakClassifiers>
        <_>
          <internalNodes>
            0 -1 19 6.2038257718086243e-02</internalNodes>
          <leafValues>
            -7.4886363744735718e-01 5.4669809341430664e-01</leafValues></_>
        <_>
          <internalNodes>
            0 -1 79 3.0790207907557487e-02</internalNodes>
          <leafValues>
            -7.8615772724151611e-01 3.4374219179153442e-01</leafValues></_>
        <_>
          <internalNodes>
            0 -1 44 1.7718675732612610e-01</internalNodes>
          <leafValues>
            2.6348108053207397e-01 -9.6153241395950317e-01</leafValues></_>
        <_>
          <internalNodes>
            0 -1 46 -5.7017400860786438e-02</internalNodes>
          <leafValues>
            7.1167290210723877e-01 -4.1237393021583557e-01</leafValues></_>
        <_>
          <internalNodes>
            0 -1 70 8.9058972662314773e-05</internalNodes>
          <leafValues>
            3.0345416069030762e-01 -7.2707468271255493e-01</leafValues></_>
        <_>
          <internalNodes>
            0 -1 72 8.9293200289830565e-05</internalNodes>
          <leafValues>
            2.5766938924789429e-01 -7.5210690498352051e-01</leafValues></_></weakClassifiers></_>
    <!-- stage 7 -->
    <_>
      <maxWeakCount>6</maxWeakCount>
      <stageThreshold>-9.6749556064605713e-01</stageThreshold>
      <weakClassifiers>
        <_>
          <internalNodes>
            0 -1 28 4.0890537202358246e-02</internalNodes>
          <leafValues>
            -8.8601821660995483e-01 4.6242529153823853e-01</leafValues></_>
        <_>
          <internalNodes>
            0 -1 68 4.9953326582908630e-02</internalNodes>
          <leafValues>
            -3.7618547677993774e-01 7.9259008169174194e-01</leafValues></_>
        <_>
          <internalNodes>
            0 -1 16 -1.0770484805107117e-02</internalNodes>
          <leafValues>
            3.5486212372779846e-01 -8.9134657382965088e-01</leafValues></_>
        <_>
          <internalNodes>
            0 -1 56 4.0374793112277985e-02</internalNodes>
          <leafValues>
            -3.4817317128181458e-01 7.8767955303192139e-01</leafValues></_>
        <_>
          <internalNodes>
            0 -1 63 3.6648847162723541e-02</internalNodes>
          <leafValues>
            -3.2151785492897034e-01 8.1538981199264526e-01</leafValues></_>
        <_>
          <internalNodes>
            0 -1 52 1.0941285640001297e-02</internalNodes>
          <leafValues>
            -4.1879442334175110e-01 6.8697023391723633e-01</leafValues></_></weakClassifiers></_>
    <!-- stage 8 -->
    <_>
      <maxWeakCount>4</maxWeakCount>
      <stageThreshold>-8.8396921753883362e-02</stageThreshold>
      <weakClassifiers>
        <_>
          <internalNodes>
            0 -1 50 -1.6422884073108435e-04</internalNodes>
          <leafValues>
            -8.3719301223754883e-01 4.7934424877166748e-01</leafValues></_>
        <_>
          <internalNodes>
            0 -1 50 7.6494296081364155e-05</internalNodes>
          <leafValues>
            2.8418639302253723e-01 -9.7211110591888428e-01</leafValues></_>
        <_>
          <internalNodes>
            0 -1 53 2.6446510106325150e-02</internalNodes>
          <leafValues>
            -3.8084840774536133e-01 8.3950167894363403e-01</leafValues></_>
        <_>
          <internalNodes>
            0 -1 64 2.6698965579271317e-02</internalNodes>
          <leafValues>
            -3.1871527433395386e-01 8.4545809030532837e-01</leafValues></_></weakClassifiers></_>
    <!-- stage 9 -->
    <_>
      <maxWeakCount>5</maxWeakCount>
      <stageThreshold>-4.1537135839462280e-01</stageThreshold>
      <weakClassifiers>
        <_>
          <internalNodes>
            0 -1 51 3.2145369797945023e-02</internalNodes>
          <leafValues>
            -4.4003054499626160e-01 6.3630986213684082e-01</leafValues></_>
        <_>
          <internalNodes>
            0 -1 65 6.9414917379617691e-04</internalNodes>
          <leafValues>
            4.5169541239738464e-01 -6.2546986341476440e-01</leafValues></_>
        <_>
          <internalNodes>
            0 -1 6 2.9505554586648941e-02</internalNodes>
          <leafValues>
            -7.5563400983810425e-01 3.2307019829750061e-01</leafValues></_>
        <_>
          <internalNodes>
            0 -1 39 -3.0802784021943808e-04</internalNodes>
          <leafValues>
            -9.4010055065155029e-01 2.1706654131412506e-01</leafValues></_>
        <_>
          <internalNodes>
            0 -1 33 -1.5795034414622933e-04</internalNodes>
          <leafValues>
            -9.1546368598937988e-01 1.9081895053386688e-01</leafValues></_></weakClassifiers></_>
    <!-- stage 10 -->
    <_>
      <maxWeakCount>7</maxWeakCount>
      <stageThreshold>-1.0003875494003296e+00</stageThreshold>
      <weakClassifiers>
        <_>
          <internalNodes>
            0 -1 31 -4.2338073253631592e-03</internalNodes>
          <leafValues>
            5.1055842638015747e-01 -6.7663979530334473e-01</leafValues></_>
        <_>
          <internalNodes>
            0 -1 48 1.3215094804763794e-04</internalNodes>
          <leafValues>
            3.0373871326446533e-01 -7.9985266923904419e-01</leafValues></_>
        <_>
          <internalNodes>
            0 -1 34 2.5101084262132645e-02</internalNodes>
          <leafValues>
            -4.7511851787567139e-01 4.9311190843582153e-01</leafValues></_>
        <_>
          <internalNodes>
            0 -1 13 -4.3250240385532379e-02</internalNodes>
          <leafValues>
            -8.9894568920135498e-01 2.2715798020362854e-01</leafValues></_>
        <_>
          <internalNodes>
            0 -1 20 2.3456610739231110e-02</internalNodes>
          <leafValues>
            2.6229986548423767e-01 -7.4569714069366455e-01</leafValues></_>
        <_>
          <internalNodes>
            0 -1 0 3.3743759559001774e-05</internalNodes>
          <leafValues>
            -6.4524698257446289e-01 2.5546962022781372e-01</leafValues></_>
        <_>
          <internalNodes>
            0 -1 42 -8.9878594735637307e-05</internalNodes>
          <leafValues>
            -9.1209256649017334e-01 2.0629599690437317e-01</leafValues></_></weakClassifiers></_>
    <!-- stage 11 -->
    <_>
      <maxWeakCount>5</maxWeakCount>
      <stageThreshold>-4.7152855992317200e-01</stageThreshold>
      <weakClassifiers>
        <_>
          <internalNodes>
            0 -1 23 4.1140727698802948e-02</internalNodes>
          <leafValues>
            -2.7008548378944397e-01 7.8232932090759277e-01</leafValues></_>
        <_>
          <internalNodes>
            0 -1 15 3.5446792026050389e-05</internalNodes>
          <leafValues>
            -8.8033246994018555e-01 3.2269644737243652e-01</leafValues></_>
        <_>
          <internalNodes>
            0 -1 76 6.8850247189402580e-03</internalNodes>
          <leafValues>
            -3.6506351828575134e-01 6.5407484769821167e-01</leafValues></_>
        <_>
          <internalNodes>
            0 -1 62 9.4298478215932846e-03</internalNodes>
          <leafValues>
            -3.5008630156517029e-01 6.8001663684844971e-01</leafValues></_>
        <_>
          <internalNodes>
            0 -1 42 8.9430279331281781e-05</internalNodes>
          <leafValues>
            3.6393630504608154e-01 -7.4871140718460083e-01</leafValues></_></weakClassifiers></_>
    <!-- stage 12 -->
    <_>
      <maxWeakCount>7</maxWeakCount>
      <stageThreshold>-1.0978149175643921e+00</stageThreshold>
      <weakClassifiers>
        <_>
          <internalNodes>
            0 -1 78 3.3589922823011875e-03</internalNodes>
          <leafValues>
            -7.2346371412277222e-01 4.4570928812026978e-01</leafValues></_>
        <_>
          <internalNodes>
            0 -1 49 9.3067821580916643e-04</internalNodes>
          <leafValues>
            -6.8913489580154419e-01 3.1869867444038391e-01</leafValues></_>
        <_>
          <internalNodes>
            0 -1 55 -1.4293301850557327e-02</internalNodes>
          <leafValues>
            3.1297799944877625e-01 -7.1223622560501099e-01</leafValues></_>
        <_>
          <internalNodes>
            0 -1 74 -1.6448096721433103e-04</internalNodes>
          <leafValues>
            -7.2398644685745239e-01 2.5539651513099670e-01</leafValues></_>
        <_>
          <internalNodes>
            0 -1 74 2.0820312784053385e-04</internalNodes>
          <leafValues>
            2.8995212912559509e-01 -6.6382735967636108e-01</leafValues></_>
        <_>
          <internalNodes>
            0 -1 58 1.1508459225296974e-02</internalNodes>
          <leafValues>
            -3.1957793235778809e-01 8.3616083860397339e-01</leafValues></_>
        <_>
          <internalNodes>
            0 -1 69 5.8627827093005180e-03</internalNodes>
          <leafValues>
            -3.1910213828086853e-01 7.2981441020965576e-01</leafValues></_></weakClassifiers></_>
    <!-- stage 13 -->
    <_>
      <maxWeakCount>6</maxWeakCount>
      <stageThreshold>-8.0352693796157837e-01</stageThreshold>
      <weakClassifiers>
        <_>
          <internalNodes>
            0 -1 47 -1.2181600322946906e-04</internalNodes>
          <leafValues>
            -9.3926244974136353e-01 3.6746749281883240e-01</leafValues></_>
        <_>
          <internalNodes>
            0 -1 12 -1.3855565339326859e-03</internalNodes>
          <leafValues>
            3.4910678863525391e-01 -6.8632805347442627e-01</leafValues></_>
        <_>
          <internalNodes>
            0 -1 57 -2.8297508135437965e-02</internalNodes>
          <leafValues>
            4.6386989951133728e-01 -4.8531994223594666e-01</leafValues></_>
        <_>
          <internalNodes>
            0 -1 29 4.7995716333389282e-02</internalNodes>
          <leafValues>
            -3.9024478197097778e-01 5.8858722448348999e-01</leafValues></_>
        <_>
          <internalNodes>
            0 -1 40 -1.2698530917987227e-04</internalNodes>
          <leafValues>
            -9.6045601367950439e-01 2.2882962226867676e-01</leafValues></_>
        <_>
          <internalNodes>
            0 -1 41 1.2457938864827156e-02</internalNodes>
          <leafValues>
            -5.4546815156936646e-01 3.5840690135955811e-01</leafValues></_></weakClassifiers></_>
    <!-- stage 14 -->
    <_>
      <maxWeakCount>7</maxWeakCount>
      <stageThreshold>-1.1592091321945190e+00</stageThreshold>
      <weakClassifiers>
        <_>
          <internalNodes>
            0 -1 1 -7.2239391505718231e-02</internalNodes>
          <leafValues>
            6.5159237384796143e-01 -3.6573427915573120e-01</leafValues></_>
        <_>
          <internalNodes>
            0 -1 80 -2.5520035997033119e-03</internalNodes>
          <leafValues>
            5.3799194097518921e-01 -4.0965017676353455e-01</leafValues></_>
        <_>
          <internalNodes>
            0 -1 37 2.7349092066287994e-02</internalNodes>
          <leafValues>
            -2.7921125292778015e-01 7.2280508279800415e-01</leafValues></_>
        <_>
          <internalNodes>
            0 -1 25 2.5361347943544388e-02</internalNodes>
          <leafValues>
            -3.3976754546165466e-01 5.7196491956710815e-01</leafValues></_>
        <_>
          <internalNodes>
            0 -1 4 5.4732672870159149e-02</internalNodes>
          <leafValues>
            -7.5042325258255005e-01 3.2207879424095154e-01</leafValues></_>
        <_>
          <internalNodes>
            0 -1 3 1.0977977886795998e-02</internalNodes>
          <leafValues>
            2.3906911909580231e-01 -8.8543415069580078e-01</leafValues></_>
        <_>
          <internalNodes>
            0 -1 26 1.2367934687063098e-03</internalNodes>
          <leafValues>
            -3.2599374651908875e-01 8.3813899755477905e-01</leafValues></_></weakClassifiers></_>
    <!-- stage 15 -->
    <_>
      <maxWeakCount>5</maxWeakCount>
      <stageThreshold>-5.8777290582656860e-01</stageThreshold>
      <weakClassifiers>
        <_>
          <internalNodes>
            0 -1 18 -5.7200826704502106e-02</internalNodes>
          <leafValues>
            4.6393671631813049e-01 -5.8401882648468018e-01</leafValues></_>
        <_>
          <internalNodes>
            0 -1 71 2.8489604592323303e-02</internalNodes>
          <leafValues>
            -2.9642751812934875e-01 6.9783246517181396e-01</leafValues></_>
        <_>
          <internalNodes>
            0 -1 75 -1.6836843860801309e-04</internalNodes>
          <leafValues>
            -9.4873756170272827e-01 2.4228663742542267e-01</leafValues></_>
        <_>
          <internalNodes>
            0 -1 75 1.2408904149197042e-04</internalNodes>
          <leafValues>
            3.5442212224006653e-01 -6.0602867603302002e-01</leafValues></_>
        <_>
          <internalNodes>
            0 -1 54 4.3387062847614288e-02</internalNodes>
          <leafValues>
            -3.0403536558151245e-01 8.3958083391189575e-01</leafValues></_></weakClassifiers></_></stages>
  <features>
    <_>
      <rects>
        <_>
          0 0 5 2 -1.</_>
        <_>
          0 1 5 1 2.</_></rects>
      <tilted>0</tilted></_>
    <_>
      <rects>
        <_>
          0 4 14 8 -1.</_>
        <_>
          0 4 7 4 2.</_>
        <_>
          7 8 7 4 2.</_></rects>
      <tilted>0</tilted></_>
    <_>
      <rects>
        <_>
          0 4 24 2 -1.</_>
        <_>
          8 4 8 2 3.</_></rects>
      <tilted>0</tilted></_>
    <_>
      <rects>
        <_>
          0 5 2 14 -1.</_>
        <_>
          0 12 2 7 2.</_></rects>
      <tilted>0</tilted></_>
    <_>
      <rects>
        <_>
          0 5 19 14 -1.</_>
        <_>
          0 12 19 7 2.</_></rects>
      <tilted>0</tilted></_>
    <_>
      <rects>
        <_>
          0 6 4 12 -1.</_>
        <_>
          2 6 2 12 2.</_></rects>
      <tilted>0</tilted></_>
    <_>
      <rects>
        <_>
          0 10 14 8 -1.</_>
        <_>
          0 10 7 4 2.</_>
        <_>
          7 14 7 4 2.</_></rects>
      <tilted>0</tilted></_>
    <_>
      <rects>
        <_>
          0 14 15 1 -1.</_>
        <_>
          5 14 5 1 3.</_></rects>
      <tilted>0</tilted></_>
    <_>
      <rects>
        <_>
          1 0 2 16 -1.</_>
        <_>
          2 0 1 16 2.</_></rects>
      <tilted>0</tilted></_>
    <_>
      <rects>
        <_>
          1 3 3 20 -1.</_>
        <_>
          1 13 3 10 2.</_></rects>
      <tilted>0</tilted></_>
    <_>
      <rects>
        <_>
          1 4 12 8 -1.</_>
        <_>
          1 4 6 4 2.</_>
        <_>
          7 8 6 4 2.</_></rects>
      <tilted>0</tilted></_>
    <_>
      <rects>
        <_>
          1 8 12 14 -1.</_>
        <_>
          1 8 6 7 2.</_>
        <_>
          7 15 6 7 2.</_></rects>
      <tilted>0</tilted></_>
    <_>
      <rects>
        <_>
          1 14 21 2 -1.</_>
        <_>
          1 15 21 1 2.</_></rects>
      <tilted>0</tilted></_>
    <_>
      <rects>
        <_>
          2 2 20 9 -1.</_>
        <_>
          12 2 10 9 2.</_></rects>
      <tilted>0</tilted></_>
    <_>
      <rects>
        <_>
          2 6 22 18 -1.</_>
        <_>
          2 12 22 6 3.</_></rects>
      <tilted>0</tilted></_>
    <_>
      <rects>
        <_>
          2 12 2 3 -1.</_>
        <_>
          3 12 1 3 2.</_></rects>
      <tilted>0</tilted></_>
    <_>
      <rects>
        <_>
          2 14 8 6 -1.</_>
        <_>
          2 17 8 3 2.</_></rects>
      <tilted>0</tilted></_>
    <_>
      <rects>
        <_>
          2 14 14 8 -1.</_>
        <_>
          2 18 14 4 2.</_></rects>
      <tilted>0</tilted></_>
    <_>
      <rects>
        <_>
          3 2 14 16 -1.</_>
        <_>
          3 2 7 8 2.</_>
        <_>
          10 10 7 8 2.</_></rects>
      <tilted>0</tilted></_>
    <_>
      <rects>
        <_>
          4 4 8 16 -1.</_>
        <_>
          4 12 8 8 2.</_></rects>
      <tilted>0</tilted></_>
    <_>
      <rects>
        <_>
          4 5 12 14 -1.</_>
        <_>
          10 5 6 14 2.</_></rects>
      <tilted>0</tilted></_>
    <_>
      <rects>
        <_>
          4 5 15 6 -1.</_>
        <_>
          4 7 15 2 3.</_></rects>
      <tilted>0</tilted></_>
    <_>
      <rects>
        <_>
          4 9 15 1 -1.</_>
        <_>
          9 9 5 1 3.</_></rects>
      <tilted>0</tilted></_>
    <_>
      <rects>
        <_>
          4 9 20 6 -1.</_>
        <_>
          4 11 20 2 3.</_></rects>
      <tilted>0</tilted></_>
    <_>
      <rects>
        <_>
          4 14 6 7 -1.</_>
        <_>
          7 14 3 7 2.</_></rects>
      <tilted>0</tilted></_>
    <_>
      <rects>
        <_>
          5 5 10 6 -1.</_>
        <_>
          5 7 10 2 3.</_></rects>
      <tilted>0</tilted></_>
    <_>
      <rects>
        <_>
          5 6 2 2 -1.</_>
        <_>
          5 6 1 1 2.</_>
        <_>
          6 7 1 1 2.</_></rects>
      <tilted>0</tilted></_>
    <_>
      <rects>
        <_>
          5 6 4 18 -1.</_>
        <_>
          5 12 4 6 3.</_></rects>
      <tilted>0</tilted></_>
    <_>
      <rects>
        <_>
          5 6 13 14 -1.</_>
        <_>
          5 13 13 7 2.</_></rects>
      <tilted>0</tilted></_>
    <_>
      <rects>
        <_>
          5 13 12 6 -1.</_>
        <_>
          9 13 4 6 3.</_></rects>
      <tilted>0</tilted></_>
    <_>
      <rects>
        <_>
          5 18 15 1 -1.</_>
        <_>
          10 18 5 1 3.</_></rects>
      <tilted>0</tilted></_>
    <_>
      <rects>
        <_>
          6 4 18 1 -1.</_>
        <_>
          15 4 9 1 2.</_></rects>
      <tilted>0</tilted></_>
    <_>
      <rects>
        <_>
          6 6 13 6 -1.</_>
        <_>
          6 8 13 2 3.</_></rects>
      <tilted>0</tilted></_>
    <_>
      <rects>
        <_>
          6 14 4 3 -1.</_>
        <_>
          6 15 4 1 3.</_></rects>
      <tilted>0</tilted></_>
    <_>
      <rects>
        <_>
          6 18 12 3 -1.</_>
        <_>
          10 18 4 3 3.</_></rects>
      <tilted>0</tilted></_>
    <_>
      <rects>
        <_>
          7 2 9 4 -1.</_>
        <_>
          10 2 3 4 3.</_></rects>
      <tilted>0</tilted></_>
    <_>
      <rects>
        <_>
          7 2 8 16 -1.</_>
        <_>
          7 2 4 8 2.</_>
        <_>
          11 10 4 8 2.</_></rects>
      <tilted>0</tilted></_>
    <_>
      <rects>
        <_>
          7 8 7 4 -1.</_>
        <_>
          7 10 7 2 2.</_></rects>
      <tilted>0</tilted></_>
    <_>
      <rects>
        <_>
          7 11 9 3 -1.</_>
        <_>
          10 11 3 3 3.</_></rects>
      <tilted>0</tilted></_>
    <_>
      <rects>
        <_>
          7 12 7 3 -1.</_>
        <_>
          7 13 7 1 3.</_></rects>
      <tilted>0</tilted></_>
    <_>
      <rects>
        <_>
          7 13 2 3 -1.</_>
        <_>
          7 14 2 1 3.</_></rects>
      <tilted>0</tilted></_>
    <_>
      <rects>
        <_>
          7 14 6 8 -1.</_>
        <_>
          7 14 3 4 2.</_>
        <_>
          10 18 3 4 2.</_></rects>
      <tilted>0</tilted></_>
    <_>
      <rects>
        <_>
          7 15 3 1 -1.</_>
        <_>
          8 15 1 1 3.</_></rects>
      <tilted>0</tilted></_>
    <_>
      <rects>
        <_>
          8 1 2 9 -1.</_>
        <_>
          8 4 2 3 3.</_></rects>
      <tilted>0</tilted></_>
    <_>
      <rects>
        <_>
          8 2 14 18 -1.</_>
        <_>
          8 11 14 9 2.</_></rects>
      <tilted>0</tilted></_>
    <_>
      <rects>
        <_>
          8 4 16 8 -1.</_>
        <_>
          8 4 8 4 2.</_>
        <_>
          16 8 8 4 2.</_></rects>
      <tilted>0</tilted></_>
    <_>
      <rects>
        <_>
          8 6 11 6 -1.</_>
        <_>
          8 8 11 2 3.</_></rects>
      <tilted>0</tilted></_>
    <_>
      <rects>
        <_>
          8 14 1 2 -1.</_>
        <_>
          8 15 1 1 2.</_></rects>
      <tilted>0</tilted></_>
    <_>
      <rects>
        <_>
          8 14 1 3 -1.</_>
        <_>
          8 15 1 1 3.</_></rects>
      <tilted>0</tilted></_>
    <_>
      <rects>
        <_>
          9 3 9 2 -1.</_>
        <_>
          9 4 9 1 2.</_></rects>
      <tilted>0</tilted></_>
    <_>
      <rects>
        <_>
          9 16 1 2 -1.</_>
        <_>
          9 17 1 1 2.</_></rects>
      <tilted>0</tilted></_>
    <_>
      <rects>
        <_>
          10 2 6 9 -1.</_>
        <_>
          10 5 6 3 3.</_></rects>
      <tilted>0</tilted></_>
    <_>
      <rects>
        <_>
          10 7 6 8 -1.</_>
        <_>
          12 7 2 8 3.</_></rects>
      <tilted>0</tilted></_>
    <_>
      <rects>
        <_>
          10 10 6 8 -1.</_>
        <_>
          12 10 2 8 3.</_></rects>
      <tilted>0</tilted></_>
    <_>
      <rects>
        <_>
          10 11 9 5 -1.</_>
        <_>
          13 11 3 5 3.</_></rects>
      <tilted>0</tilted></_>
    <_>
      <rects>
        <_>
          10 20 11 4 -1.</_>
        <_>
          10 22 11 2 2.</_></rects>
      <tilted>0</tilted></_>
    <_>
      <rects>
        <_>
          11 1 6 20 -1.</_>
        <_>
          13 1 2 20 3.</_></rects>
      <tilted>0</tilted></_>
    <_>
      <rects>
        <_>
          11 4 3 8 -1.</_>
        <_>
          11 8 3 4 2.</_></rects>
      <tilted>0</tilted></_>
    <_>
      <rects>
        <_>
          11 13 6 2 -1.</_>
        <_>
          13 13 2 2 3.</_></rects>
      <tilted>0</tilted></_>
    <_>
      <rects>
        <_>
          12 1 6 22 -1.</_>
        <_>
          14 1 2 22 3.</_></rects>
      <tilted>0</tilted></_>
    <_>
      <rects>
        <_>
          12 8 6 7 -1.</_>
        <_>
          14 8 2 7 3.</_></rects>
      <tilted>0</tilted></_>
    <_>
      <rects>
        <_>
          12 11 6 2 -1.</_>
        <_>
          12 12 6 1 2.</_></rects>
      <tilted>0</tilted></_>
    <_>
      <rects>
        <_>
          12 13 6 4 -1.</_>
        <_>
          14 13 2 4 3.</_></rects>
      <tilted>0</tilted></_>
    <_>
      <rects>
        <_>
          13 2 6 17 -1.</_>
        <_>
          15 2 2 17 3.</_></rects>
      <tilted>0</tilted></_>
    <_>
      <rects>
        <_>
          13 10 6 7 -1.</_>
        <_>
          15 10 2 7 3.</_></rects>
      <tilted>0</tilted></_>
    <_>
      <rects>
        <_>
          13 11 4 2 -1.</_>
        <_>
          13 12 4 1 2.</_></rects>
      <tilted>0</tilted></_>
    <_>
      <rects>
        <_>
          14 2 6 16 -1.</_>
        <_>
          16 2 2 16 3.</_></rects>
      <tilted>0</tilted></_>
    <_>
      <rects>
        <_>
          14 8 9 5 -1.</_>
        <_>
          17 8 3 5 3.</_></rects>
      <tilted>0</tilted></_>
    <_>
      <rects>
        <_>
          14 8 9 6 -1.</_>
        <_>
          17 8 3 6 3.</_></rects>
      <tilted>0</tilted></_>
    <_>
      <rects>
        <_>
          14 12 6 2 -1.</_>
        <_>
          16 12 2 2 3.</_></rects>
      <tilted>0</tilted></_>
    <_>
      <rects>
        <_>
          14 14 1 3 -1.</_>
        <_>
          14 15 1 1 3.</_></rects>
      <tilted>0</tilted></_>
    <_>
      <rects>
        <_>
          15 10 9 3 -1.</_>
        <_>
          18 10 3 3 3.</_></rects>
      <tilted>0</tilted></_>
    <_>
      <rects>
        <_>
          15 11 1 3 -1.</_>
        <_>
          15 12 1 1 3.</_></rects>
      <tilted>0</tilted></_>
    <_>
      <rects>
        <_>
          15 11 6 1 -1.</_>
        <_>
          17 11 2 1 3.</_></rects>
      <tilted>0</tilted></_>
    <_>
      <rects>
        <_>
          15 11 3 3 -1.</_>
        <_>
          15 12 3 1 3.</_></rects>
      <tilted>0</tilted></_>
    <_>
      <rects>
        <_>
          15 12 2 3 -1.</_>
        <_>
          15 13 2 1 3.</_></rects>
      <tilted>0</tilted></_>
    <_>
      <rects>
        <_>
          15 14 6 2 -1.</_>
        <_>
          17 14 2 2 3.</_></rects>
      <tilted>0</tilted></_>
    <_>
      <rects>
        <_>
          16 12 6 2 -1.</_>
        <_>
          18 12 2 2 3.</_></rects>
      <tilted>0</tilted></_>
    <_>
      <rects>
        <_>
          17 4 7 6 -1.</_>
        <_>
          17 7 7 3 2.</_></rects>
      <tilted>0</tilted></_>
    <_>
      <rects>
        <_>
          18 2 6 21 -1.</_>
        <_>
          18 9 6 7 3.</_></rects>
      <tilted>0</tilted></_>
    <_>
      <rects>
        <_>
          20 6 2 10 -1.</_>
        <_>
          21 6 1 10 2.</_></rects>
      <tilted>0</tilted></_></features></cascade>
</opencv_storage>
